9438[array([[-0.02852982, -0.09793913,  0.231115  , ...,  0.45076606,
        -0.39192002, -0.66812882],
       [ 0.35408581,  0.67727142, -0.55844775, ..., -1.97444422,
        -1.36013783, -0.75866756],
       [ 0.86155175, -0.97073735,  0.70557977, ...,  1.46218233,
        -1.96342681,  0.19217458],
       ...,
       [-0.18981353,  1.57856457, -1.58370754, ..., -0.07717134,
         0.87600566,  0.76478658],
       [-0.65636894, -0.12460182,  1.77955259, ..., -0.07721827,
         0.53419339,  0.72947613],
       [-0.76570528, -1.72004624, -0.84401071, ...,  1.42987731,
        -0.36079773,  0.36816441]]), array([[ 1.82819786, -2.63261146,  1.26510781, -1.55957942, -0.51587812,
        -0.2633644 ,  2.90726877,  3.8527707 , -0.89098171, -2.07879729,
         0.07226537, -2.38600471, -2.49074685,  1.28106867, -3.78252549,
         1.01882196,  2.10693193, -2.38714524,  1.5992487 , -1.97883249,
         0.43378885, -3.69419623, -1.59255506, -1.48964189, -3.40808507,
        -0.07875946,  0.86954455,  4.19662744, -2.99920604,  2.03293114],
       [-0.79970217,  2.08341522, -1.74662023,  3.04299013,  0.68959649,
        -2.65572108,  2.93377978, -3.10922013, -2.72748093, -2.23835342,
         1.47684435, -3.83610282,  1.68238272, -3.50313784, -2.36593693,
        -2.86583276,  0.32561036,  2.65193694,  1.53631431,  1.05937408,
        -1.57018655, -0.93968717,  1.21145402, -1.04201237, -2.47141449,
        -0.52149299,  0.34558145, -0.34429451,  0.41693761, -1.1525994 ],
       [ 0.79157536,  0.32374911,  1.25255648, -1.24761341, -1.64320113,
        -0.95726643, -3.05522248, -0.66631688, -2.61092248,  2.457525  ,
         3.08222674,  0.17939244,  3.41221321,  4.07637741, -2.10204665,
        -1.05435563,  1.57808726, -2.51279704, -4.0240805 , -2.73899744,
         2.55110104, -1.25616218,  1.72240932,  0.710609  , -2.61888853,
        -0.89158762, -1.90587393, -1.62063161, -1.58402062, -3.28281338],
       [-3.11718132,  2.04347881, -1.29494583,  2.21584514, -1.38835522,
         0.09724428,  0.87105823,  2.98882503,  1.6452347 ,  0.72797023,
         0.81522236,  0.34446888, -4.01926062, -1.74385355, -1.54058205,
        -1.73522454, -0.21894634, -3.52168984, -1.14313714,  0.2998521 ,
        -2.87717711, -4.27609209,  0.16836223, -0.36547812,  2.88970414,
        -5.81543645, -0.80064674,  0.71263308,  1.54992557, -2.59661602],
       [ 1.31487005,  0.08083122,  0.30096185,  2.56935727, -2.69158573,
        -3.06437487, -2.66422093, -0.34211895,  1.08102075, -2.93731199,
        -2.36805138, -2.55804009, -0.33684145,  0.24273721, -2.77937058,
         4.25121449, -0.01918168,  1.61012774, -3.73520154, -1.65627715,
         0.05419753,  2.74980029,  2.15348015,  2.77240543,  0.90039458,
        -2.3114343 ,  2.91026642, -2.43660013, -0.28282675, -1.0454899 ],
       [-4.01059677, -2.79489076, -1.40400657, -3.41065364,  0.28771932,
        -1.27521241, -0.31707215, -2.67212823, -3.1458116 ,  1.14483441,
        -0.75205084, -0.22826805,  0.53710739, -0.74924736, -0.42261196,
        -0.26911926, -4.10816789, -2.0360464 ,  2.76264848, -0.33418592,
        -0.04273803, -4.89281273,  0.24109927,  2.34817941,  2.83902793,
         5.26701046,  1.50068388,  2.35386183,  0.50797178,  1.0231395 ],
       [ 0.13601508, -1.74299234,  1.0575342 ,  1.30789271,  3.12305556,
        -0.15257407, -2.75461427, -0.54284138,  1.89681473, -2.37153088,
        -0.30729007, -0.64067529, -1.63193533,  1.3717005 , -2.55315947,
        -4.58193751, -2.50937113,  3.80949375, -0.60889446, -1.14869532,
         0.22237086, -1.01690313, -2.70304269, -2.02147739, -3.45593892,
         1.62576157,  0.70764276, -0.41291547, -0.84885635,  3.44637428],
       [ 1.95705102,  0.40883296, -2.03180767, -0.95151691,  1.00945819,
         5.04847568,  1.43667665,  1.1114571 ,  0.07723392,  3.21712169,
        -1.66489623, -2.71062221,  3.53541165, -3.98822497, -3.4513767 ,
         1.34563562, -1.1222989 ,  1.16681357,  1.26328994, -4.33607748,
        -1.69867341,  2.77519826, -0.13386473,  1.75841858, -2.11234044,
        -0.47206972,  0.76451834,  1.73963586,  3.49920262, -0.58452435],
       [-0.91493403, -2.58850767,  2.69221737, -2.99260195, -2.65256452,
        -2.62403054,  3.21102659, -4.13572556,  1.61741842, -2.6502132 ,
        -1.07241807,  2.34695092, -1.3905007 , -2.41287486, -1.19929996,
         1.80810437, -0.06553442, -1.51277066, -0.95184736, -2.57202626,
         0.98989284, -3.94674346,  0.53503431, -2.46303597, -4.163179  ,
        -4.25812907, -0.44613172, -4.46429181, -0.02649198,  1.76798099],
       [-1.20652975, -1.31466932,  0.06387482, -1.20412581, -0.5059491 ,
         2.54937249,  4.90389601, -0.43944395, -1.24266271, -4.63238238,
         1.97600841, -1.73098707, -2.27181471,  0.73548808, -1.59559527,
         2.27201306,  0.81046424,  1.28392991,  0.55477073, -2.65172993,
        -1.02997661,  5.35449263, -2.58702142, -3.6619646 ,  2.65895448,
        -0.92247214, -2.0116439 , -3.31727494, -2.14407841,  1.14630229]])]